{
    " ": [
        "8",
        "10.6667"
    ],
    "h": [
        "-0.5",
        "-0.7115384615384616"
    ],
    "he": [
        "1.2211538461538463",
        "-0.6923076923076923"
    ],
    "li": [
        "-0.5",
        "-1.7019230769230769"
    ],
    "be": [
        "-1.4903846153846154",
        "-1.7019230769230769"
    ],
    "b": [
        "6.173076923076923",
        "-1.6826923076923077"
    ],
    "c": [
        "5.1826923076923075",
        "-1.6826923076923077"
    ],
    "n": [
        "4.1923076923076925",
        "-1.6826923076923077"
    ],
    "o": [
        "3.201923076923077",
        "-1.6826923076923077"
    ],
    "f": [
        "2.2115384615384617",
        "-1.6826923076923077"
    ],
    "ne": [
        "1.2211538461538463",
        "-1.6826923076923077"
    ],
    "na": [
        "-0.5",
        "-2.6923076923076925"
    ],
    "mg": [
        "-1.4903846153846154",
        "-2.6923076923076925"
    ],
    "al": [
        "6.173076923076923",
        "-2.673076923076923"
    ],
    "si": [
        "5.1826923076923075",
        "-2.673076923076923"
    ],
    "p": [
        "4.1923076923076925",
        "-2.673076923076923"
    ],
    "s": [
        "3.201923076923077",
        "-2.673076923076923"
    ],
    "cl": [
        "2.2115384615384617",
        "-2.673076923076923"
    ],
    "ar": [
        "1.2211538461538463",
        "-2.673076923076923"
    ],
    "k": [
        "-0.5",
        "-3.6826923076923075"
    ],
    "ca": [
        "-1.4903846153846154",
        "-3.6826923076923075"
    ],
    "sc": [
        "-3.15",
        "-3.6533"
    ],
    "ti": [
        "-4.134615384615385",
        "-3.65333"
    ],
    "v": [
        "14.096153846153847",
        "-3.65333"
    ],
    "cr": [
        "13.10576923076923",
        "-3.65333"
    ],
    "mn": [
        "12.115384615384615",
        "-3.65333"
    ],
    "fe": [
        "11.125",
        "-3.65333"
    ],
    "co": [
        "10.134615384615385",
        "-3.65333"
    ],
    "ni": [
        "9.14",
        "-3.65333"
    ],
    "cu": [
        "8.153846153846153",
        "-3.65333"
    ],
    "zn": [
        "7.166",
        "-3.65333"
    ],
    "ga": [
        "6.173076923076923",
        "-3.65333"
    ],
    "ge": [
        "5.1826923076923075",
        "-3.65333"
    ],
    "as": [
        "4.1923076923076925",
        "-3.65333"
    ],
    "se": [
        "3.201923076923077",
        "-3.65333"
    ],
    "br": [
        "2.2115384615384617",
        "-3.65333"
    ],
    "kr": [
        "1.2211538461538463",
        "-3.65333"
    ],
    "rb": [
        "-0.5",
        "-4.673076923076923"
    ],
    "sr": [
        "-1.4903846153846154",
        "-4.673076923076923"
    ],
    "y": [
        "-3.15",
        "-4.6533"
    ],
    "zr": [
        "-4.134615384615385",
        "-4.6533"
    ],
    "nb": [
        "14.096153846153847",
        "-4.6533"
    ],
    "mo": [
        "13.10576923076923",
        "-4.6533"
    ],
    "tc": [
        "12.115384615384615",
        "-4.6533"
    ],
    "ru": [
        "11.125",
        "-4.653846153846154"
    ],
    "rh": [
        "10.134615384615385",
        "-4.653846153846154"
    ],
    "pd": [
        "9.14",
        "-4.653846153846154"
    ],
    "ag": [
        "8.153846153846153",
        "-4.653846153846154"
    ],
    "cd": [
        "7.166",
        "-4.653846153846154"
    ],
    "in": [
        "6.173076923076923",
        "-4.653846153846154"
    ],
    "sn": [
        "5.1826923076923075",
        "-4.653846153846154"
    ],
    "sb": [
        "4.1923076923076925",
        "-4.653846153846154"
    ],
    "te": [
        "3.201923076923077",
        "-4.653846153846154"
    ],
    "i": [
        "2.2115384615384617",
        "-4.653846153846154"
    ],
    "xe": [
        "1.2211538461538463",
        "-4.653846153846154"
    ],
    "cs": [
        "-0.5096153846153846",
        "-5.6533"
    ],
    "ba": [
        "-1.4903846153846154",
        "-5.6533"
    ],
    "hf": [
        "-4.134615384615385",
        "-5.644230769230769"
    ],
    "ta": [
        "14.096153846153847",
        "-5.644230769230769"
    ],
    "w": [
        "13.10576923076923",
        "-5.644230769230769"
    ],
    "re": [
        "12.115384615384615",
        "-5.644230769230769"
    ],
    "os": [
        "11.125",
        "-5.644230769230769"
    ],
    "ir": [
        "10.134615384615385",
        "-5.644230769230769"
    ],
    "pt": [
        "9.14",
        "-5.644230769230769"
    ],
    "au": [
        "8.153846153846153",
        "-5.644230769230769"
    ],
    "hg": [
        "7.166",
        "-5.644230769230769"
    ],
    "tl": [
        "6.173076923076923",
        "-5.644230769230769"
    ],
    "pb": [
        "5.1826923076923075",
        "-5.644230769230769"
    ],
    "bi": [
        "4.1923076923076925",
        "-5.644230769230769"
    ],
    "po": [
        "3.201923076923077",
        "-5.644230769230769"
    ],
    "at": [
        "2.2115384615384617",
        "-5.644230769230769"
    ],
    "rn": [
        "1.2211538461538463",
        "-5.644230769230769"
    ],
    "fr": [
        "-0.5096153846153846",
        "-6.6533"
    ],
    "ra": [
        "-1.4903846153846154",
        "-6.6533"
    ],
    "rf": [
        "-4.134615384615385",
        "-6.64"
    ],
    "db": [
        "14.096153846153847",
        "-6.64"
    ],
    "sg": [
        "13.10576923076923",
        "-6.64"
    ],
    "bh": [
        "12.115384615384615",
        "-6.64"
    ],
    "hs": [
        "11.125",
        "-6.64"
    ],
    "mt": [
        "10.134615384615385",
        "-6.64"
    ],
    "ds": [
        "9.14",
        "-6.64"
    ],
    "rg": [
        "8.153846153846153",
        "-6.64"
    ],
    "cn": [
        "7.166",
        "-6.64"
    ],
    "nh": [
        "6.173076923076923",
        "-6.64"
    ],
    "fl": [
        "5.1826923076923075",
        "-6.64"
    ],
    "mc": [
        "4.1923076923076925",
        "-6.64"
    ],
    "lv": [
        "3.201923076923077",
        "-6.64"
    ],
    "ts": [
        "2.2115384615384617",
        "-6.64"
    ],
    "og": [
        "1.2211538461538463",
        "-6.64"
    ],
    "la": [
        "-4.134615384615385",
        "-8.14"
    ],
    "ce": [
        "-4.134615384615385",
        "-8.14"
    ],
    "pr": [
        "-6.12",
        "-8.14"
    ],
    "nd": [
        "-7.12",
        "-8.14"
    ],
    "pm": [
        "-8.106",
        "-8.14"
    ],
    "sm": [
        "-9.1",
        "-8.14"
    ],
    "eu": [
        "-10.08",
        "-8.14"
    ],
    "gd": [
        "-11.08",
        "-8.14"
    ],
    "tb": [
        "-12.066",
        "-8.14"
    ],
    "dy": [
        "-13.066",
        "-8.14"
    ],
    "ho": [
        "-14.046",
        "-8.14"
    ],
    "er": [
        "-15.04",
        "-8.14"
    ],
    "tm": [
        "-16.03",
        "-8.14"
    ],
    "yb": [
        "-17.013",
        "-8.14"
    ],
    "lu": [
        "-3.15",
        "-5.64"
    ],
    "ac": [
        "-4.1346",
        "-9.1346"
    ],
    "th": [
        "-5.134615384615385",
        "-9.134615384615385"
    ],
    "pa": [
        "-6.12",
        "-9.134615384615385"
    ],
    "u": [
        "-7.12",
        "-9.134615384615385"
    ],
    "np": [
        "-8.106",
        "-9.134615384615385"
    ],
    "pu": [
        "-9.1",
        "-9.134615384615385"
    ],
    "am": [
        "-10.08",
        "-9.134615384615385"
    ],
    "cm": [
        "-11.08",
        "-9.134615384615385"
    ],
    "bk": [
        "-12.066",
        "-9.134615384615385"
    ],
    "cf": [
        "-13.066",
        "-9.134615384615385"
    ],
    "es": [
        "-14.046",
        "-9.134615384615385"
    ],
    "fm": [
        "-15.04",
        "-9.134615384615385"
    ],
    "md": [
        "-16.03",
        "-9.134615384615385"
    ],
    "no": [
        "-17.013",
        "-9.134615384615385"
    ],
    "lr": [
        "-3.15",
        "-6.64"
    ]
}